SVM-light Version V6.20
0 # kernel type
3 # kernel parameter -d 
1 # kernel parameter -g 
1 # kernel parameter -s 
1 # kernel parameter -r 
empty# kernel parameter -u 
10 # highest feature index 
1 # number of training documents 
2 # number of support vectors plus 1 
0 # threshold b, each following line is a SV (starting with alpha*y)
1 1:0.0010421169 2:0.0018218472 3:0.001844047 4:0.0018568201 5:0.0018685763 6:0.0025764431 7:0.0025837256 8:0.0026198637 9:0.0030810996 #
