SVM-light Version V6.20
0 # kernel type
3 # kernel parameter -d 
1 # kernel parameter -g 
1 # kernel parameter -s 
1 # kernel parameter -r 
empty# kernel parameter -u 
10 # highest feature index 
63 # number of training documents 
2 # number of support vectors plus 1 
0 # threshold b, each following line is a SV (starting with alpha*y)
1 1:0.42834139 2:-0.10077791 3:0.25850654 4:-0.029527275 5:0.097332262 6:0.10591748 7:-0.026557714 8:0.071102642 9:0.17235784 #
