SVM-light Version V6.20
0 # kernel type
3 # kernel parameter -d 
1 # kernel parameter -g 
1 # kernel parameter -s 
1 # kernel parameter -r 
empty# kernel parameter -u 
10 # highest feature index 
12 # number of training documents 
2 # number of support vectors plus 1 
0 # threshold b, each following line is a SV (starting with alpha*y)
1 1:-0.021743143 2:0.07445915 3:0.64548755 4:-0.02755395 5:0.18309969 6:0.25669152 7:0.099762581 8:0.29235622 9:0.21346723 #
